=== Run information ===

Scheme:       weka.classifiers.meta.CostSensitiveClassifier -cost-matrix "[0.0 4.0; 8.0 -0.5]" -S 1 -W weka.classifiers.trees.REPTree -- -M 2 -V 0.001 -N 3 -S 1 -L -1 -I 0.0
Relation:     MICRODADOS_obitos_march-weka.filters.unsupervised.attribute.Remove-R1-7,11,26-27-weka.filters.supervised.instance.ClassBalancer-num-intervals10
Instances:    143
Attributes:   18
              FaixaEtaria
              Sexo
              RacaCor
              Febre
              DificuldadeRespiratoria
              Tosse
              Coriza
              DorGarganta
              Diarreia
              Cefaleia
              ComorbidadePulmao
              ComorbidadeCardio
              ComorbidadeRenal
              ComorbidadeDiabetes
              ComorbidadeTabagismo
              ComorbidadeObesidade
              FicouInternado
              Obito
Test mode:    10-fold cross-validation

=== Classifier model (full training set) ===

CostSensitiveClassifier using reweighted training instances

weka.classifiers.trees.REPTree -M 2 -V 0.001 -N 3 -S 1 -L -1 -I 0.0

Classifier Model

REPTree
============
 : Sim (92.56/34.32) [50.44/17.16]

Size of the tree : 1

Cost Matrix
 0    4   
 8    -0.5


Time taken to build model: 0 seconds

=== Stratified cross-validation ===
=== Summary ===

Correctly Classified Instances         101.2917          70.8333 %
Incorrectly Classified Instances        41.7083          29.1667 %
Kappa statistic                          0.4167
Mean absolute error                      0.4084
Root mean squared error                  0.547 
Relative absolute error                 81.4976 %
Root relative squared error            109.1342 %
Total Number of Instances              143     

=== Detailed Accuracy By Class ===

                 TP Rate  FP Rate  Precision  Recall   F-Measure  MCC      ROC Area  PRC Area  Class
                 0,780    0,364    0,682      0,780    0,728      0,421    0,608     0,531     Não
                 0,636    0,220    0,743      0,636    0,686      0,421    0,607     0,658     Sim
Weighted Avg.    0,708    0,292    0,713      0,708    0,707      0,421    0,608     0,595     

=== Confusion Matrix ===

  a  b   <-- classified as
 56 16 |  a = Não
 26 46 |  b = Sim

