=== Run information ===

Scheme:       weka.classifiers.meta.CostSensitiveClassifier -cost-matrix "[0.0 4.0; 50.0 -0.5]" -S 1 -W weka.classifiers.trees.REPTree -- -M 2 -V 0.001 -N 3 -S 1 -L -1 -I 0.0
Relation:     MICRODADOS_obitos-weka.filters.unsupervised.attribute.Remove-R1-7,11-weka.filters.unsupervised.attribute.Remove-R17-19
Instances:    33232
Attributes:   17
              FaixaEtaria
              Sexo
              RacaCor
              Febre
              DificuldadeRespiratoria
              Tosse
              Coriza
              DorGarganta
              Diarreia
              Cefaleia
              ComorbidadePulmao
              ComorbidadeCardio
              ComorbidadeRenal
              ComorbidadeDiabetes
              ComorbidadeTabagismo
              ComorbidadeObesidade
              Obito
Test mode:    10-fold cross-validation

=== Classifier model (full training set) ===

CostSensitiveClassifier using reweighted training instances

weka.classifiers.trees.REPTree -M 2 -V 0.001 -N 3 -S 1 -L -1 -I 0.0

Classifier Model

REPTree
============

FaixaEtaria = 60 a 69 anos
|   DificuldadeRespiratoria = Não
|   |   ComorbidadeDiabetes = Não
|   |   |   RacaCor = Branca
|   |   |   |   Sexo = F
|   |   |   |   |   Febre = Não : Não (75.06/0) [36.09/0]
|   |   |   |   |   Febre = Sim
|   |   |   |   |   |   ComorbidadeTabagismo = Não
|   |   |   |   |   |   |   Cefaleia = Não
|   |   |   |   |   |   |   |   Tosse = Não : Não (7.22/0) [2.89/0]
|   |   |   |   |   |   |   |   Tosse = Sim
|   |   |   |   |   |   |   |   |   DorGarganta = Não
|   |   |   |   |   |   |   |   |   |   Diarreia = Não
|   |   |   |   |   |   |   |   |   |   |   Coriza = Não : Sim (31.2/15.16) [22.54/6.5]
|   |   |   |   |   |   |   |   |   |   |   Coriza = Sim : Não (2.89/0) [2.17/0]
|   |   |   |   |   |   |   |   |   |   |   Coriza = - : Sim (0/0) [0/0]
|   |   |   |   |   |   |   |   |   |   Diarreia = Sim : Não (3.61/0) [2.17/0]
|   |   |   |   |   |   |   |   |   |   Diarreia = - : Não (0/0) [0/0]
|   |   |   |   |   |   |   |   |   DorGarganta = Sim : Não (4.33/0) [2.17/0]
|   |   |   |   |   |   |   |   |   DorGarganta = - : Não (0/0) [0/0]
|   |   |   |   |   |   |   |   Tosse = - : Não (0/0) [0/0]
|   |   |   |   |   |   |   Cefaleia = Sim : Não (54.13/0) [32.48/0]
|   |   |   |   |   |   |   Cefaleia = - : Não (0/0) [0/0]
|   |   |   |   |   |   ComorbidadeTabagismo = Sim : Sim (10.18/2.17) [0.72/0.72]
|   |   |   |   |   |   ComorbidadeTabagismo = - : Não (0/0) [0/0]
|   |   |   |   |   Febre = - : Não (0/0) [0/0]
|   |   |   |   Sexo = M
|   |   |   |   |   ComorbidadeObesidade = Não
|   |   |   |   |   |   Coriza = Não
|   |   |   |   |   |   |   Tosse = Não : Não (67.44/32.08) [23.1/0]
|   |   |   |   |   |   |   Tosse = Sim
|   |   |   |   |   |   |   |   Febre = Não : Não (25.26/0) [8.66/0]
|   |   |   |   |   |   |   |   Febre = Sim
|   |   |   |   |   |   |   |   |   ComorbidadeCardio = Não
|   |   |   |   |   |   |   |   |   |   Diarreia = Não
|   |   |   |   |   |   |   |   |   |   |   DorGarganta = Não : Não (26.79/8.02) [18.12/8.02]
|   |   |   |   |   |   |   |   |   |   |   DorGarganta = Sim
|   |   |   |   |   |   |   |   |   |   |   |   Cefaleia = Não : Não (2.89/0) [2.17/0]
|   |   |   |   |   |   |   |   |   |   |   |   Cefaleia = Sim : Sim (9.46/1.44) [9.46/1.44]
|   |   |   |   |   |   |   |   |   |   |   |   Cefaleia = - : Sim (0/0) [0/0]
|   |   |   |   |   |   |   |   |   |   |   DorGarganta = - : Não (0/0) [0/0]
|   |   |   |   |   |   |   |   |   |   Diarreia = Sim : Sim (10.91/2.89) [10.18/2.17]
|   |   |   |   |   |   |   |   |   |   Diarreia = - : Sim (0/0) [0/0]
|   |   |   |   |   |   |   |   |   ComorbidadeCardio = Sim : Não (24.62/8.02) [9.38/0]
|   |   |   |   |   |   |   |   |   ComorbidadeCardio = - : Não (0/0) [0/0]
|   |   |   |   |   |   |   |   Febre = - : Não (0/0) [0/0]
|   |   |   |   |   |   |   Tosse = - : Não (0/0) [0/0]
|   |   |   |   |   |   Coriza = Sim : Não (47.72/8.02) [28.87/0]
|   |   |   |   |   |   Coriza = - : Não (0/0) [0/0]
|   |   |   |   |   ComorbidadeObesidade = Sim : Sim (3.61/3.61) [10.18/2.17]
|   |   |   |   |   ComorbidadeObesidade = - : Sim (8.02/0) [0/0]
|   |   |   |   Sexo = I : Não (0/0) [0/0]
|   |   |   RacaCor = Preta : Não (84.77/32.08) [21.65/0]
|   |   |   RacaCor = Amarela : Não (40.42/0) [24.54/0]
|   |   |   RacaCor = Parda
|   |   |   |   Cefaleia = Não
|   |   |   |   |   ComorbidadeRenal = Não
|   |   |   |   |   |   Coriza = Não
|   |   |   |   |   |   |   DorGarganta = Não
|   |   |   |   |   |   |   |   Diarreia = Não
|   |   |   |   |   |   |   |   |   Sexo = F : Não (48.52/16.04) [53.01/32.08]
|   |   |   |   |   |   |   |   |   Sexo = M
|   |   |   |   |   |   |   |   |   |   Febre = Não : Não (23.1/0) [20.29/8.02]
|   |   |   |   |   |   |   |   |   |   Febre = Sim
|   |   |   |   |   |   |   |   |   |   |   ComorbidadeCardio = Não
|   |   |   |   |   |   |   |   |   |   |   |   Tosse = Não : Não (5.05/0) [0.72/0]
|   |   |   |   |   |   |   |   |   |   |   |   Tosse = Sim : Sim (29.03/12.99) [11.63/3.61]
|   |   |   |   |   |   |   |   |   |   |   |   Tosse = - : Sim (0/0) [0/0]
|   |   |   |   |   |   |   |   |   |   |   ComorbidadeCardio = Sim : Não (10.83/0) [12.35/8.02]
|   |   |   |   |   |   |   |   |   |   |   ComorbidadeCardio = - : Não (0/0) [0/0]
|   |   |   |   |   |   |   |   |   |   Febre = - : Não (0/0) [0/0]
|   |   |   |   |   |   |   |   |   Sexo = I : Não (0/0) [0/0]
|   |   |   |   |   |   |   |   Diarreia = Sim : Não (7.94/0) [3.61/0]
|   |   |   |   |   |   |   |   Diarreia = - : Não (0/0) [0/0]
|   |   |   |   |   |   |   DorGarganta = Sim : Não (17.32/0) [16.68/8.02]
|   |   |   |   |   |   |   DorGarganta = - : Não (0/0) [0/0]
|   |   |   |   |   |   Coriza = Sim : Não (53.65/24.06) [18.77/0]
|   |   |   |   |   |   Coriza = - : Não (0/0) [0/0]
|   |   |   |   |   ComorbidadeRenal = Sim : Sim (9.46/1.44) [1.44/1.44]
|   |   |   |   |   ComorbidadeRenal = - : Não (0/0) [0/0]
|   |   |   |   Cefaleia = Sim : Não (109.79/8.02) [54.13/0]
|   |   |   |   Cefaleia = - : Não (0/0) [0/0]
|   |   |   RacaCor = Indigena : Não (0.72/0) [0.72/0]
|   |   |   RacaCor = Ignorado
|   |   |   |   Cefaleia = Não
|   |   |   |   |   Sexo = F : Não (83.08/8.02) [49.24/16.04]
|   |   |   |   |   Sexo = M
|   |   |   |   |   |   ComorbidadeCardio = Não : Não (72.34/16.04) [37.61/8.02]
|   |   |   |   |   |   ComorbidadeCardio = Sim
|   |   |   |   |   |   |   Diarreia = Não
|   |   |   |   |   |   |   |   DorGarganta = Não : Sim (34.89/10.83) [14.52/6.5]
|   |   |   |   |   |   |   |   DorGarganta = Sim : Não (2.89/0) [2.17/0]
|   |   |   |   |   |   |   |   DorGarganta = - : Sim (0/0) [0/0]
|   |   |   |   |   |   |   Diarreia = Sim : Não (4.33/0) [0.72/0]
|   |   |   |   |   |   |   Diarreia = - : Sim (0/0) [0/0]
|   |   |   |   |   |   ComorbidadeCardio = - : Não (0/0) [0/0]
|   |   |   |   |   Sexo = I : Não (0/0) [0.72/0]
|   |   |   |   Cefaleia = Sim : Não (54.13/0) [41.22/8.02]
|   |   |   |   Cefaleia = - : Não (0/0) [0/0]
|   |   ComorbidadeDiabetes = Sim
|   |   |   Sexo = F
|   |   |   |   RacaCor = Branca
|   |   |   |   |   Cefaleia = Não
|   |   |   |   |   |   ComorbidadeCardio = Não : Não (6.5/0) [1.44/0]
|   |   |   |   |   |   ComorbidadeCardio = Sim
|   |   |   |   |   |   |   ComorbidadeObesidade = Não
|   |   |   |   |   |   |   |   Febre = Não : Não (5.77/0) [2.17/0]
|   |   |   |   |   |   |   |   Febre = Sim : Sim (13.79/5.77) [9.46/1.44]
|   |   |   |   |   |   |   |   Febre = - : Sim (0/0) [0/0]
|   |   |   |   |   |   |   ComorbidadeObesidade = Sim : Sim (9.46/1.44) [0/0]
|   |   |   |   |   |   |   ComorbidadeObesidade = - : Sim (0/0) [0/0]
|   |   |   |   |   |   ComorbidadeCardio = - : Não (0/0) [0/0]
|   |   |   |   |   Cefaleia = Sim : Não (18.77/0) [8.66/0]
|   |   |   |   |   Cefaleia = - : Não (0/0) [0/0]
|   |   |   |   RacaCor = Preta : Não (10.83/0) [9.38/0]
|   |   |   |   RacaCor = Amarela
|   |   |   |   |   Diarreia = Não : Sim (20.37/4.33) [2.89/2.89]
|   |   |   |   |   Diarreia = Sim : Não (3.61/0) [0.72/0]
|   |   |   |   |   Diarreia = - : Sim (0/0) [0/0]
|   |   |   |   RacaCor = Parda
|   |   |   |   |   Coriza = Não : Sim (73.3/33.2) [23.98/7.94]
|   |   |   |   |   Coriza = Sim : Não (12.27/0) [7.94/0]
|   |   |   |   |   Coriza = - : Não (0/0) [0/0]
|   |   |   |   RacaCor = Indigena : Não (0/0) [0/0]
|   |   |   |   RacaCor = Ignorado : Não (29.67/8.02) [13.71/0]
|   |   |   Sexo = M
|   |   |   |   RacaCor = Branca
|   |   |   |   |   DorGarganta = Não
|   |   |   |   |   |   Diarreia = Não
|   |   |   |   |   |   |   Coriza = Não
|   |   |   |   |   |   |   |   Febre = Não : Sim (22.54/6.5) [10.91/2.89]
|   |   |   |   |   |   |   |   Febre = Sim : Não (20.29/8.02) [2.89/0]
|   |   |   |   |   |   |   |   Febre = - : Sim (0/0) [0/0]
|   |   |   |   |   |   |   Coriza = Sim
|   |   |   |   |   |   |   |   Cefaleia = Não : Sim (16.76/0.72) [2.17/2.17]
|   |   |   |   |   |   |   |   Cefaleia = Sim : Não (2.17/0) [2.17/0]
|   |   |   |   |   |   |   |   Cefaleia = - : Sim (0/0) [0/0]
|   |   |   |   |   |   |   Coriza = - : Sim (0/0) [0/0]
|   |   |   |   |   |   Diarreia = Sim : Não (5.05/0) [0.72/0]
|   |   |   |   |   |   Diarreia = - : Sim (0/0) [0/0]
|   |   |   |   |   DorGarganta = Sim : Não (5.05/0) [1.44/0]
|   |   |   |   |   DorGarganta = - : Sim (0/0) [0/0]
|   |   |   |   RacaCor = Preta : Sim (32.72/8.66) [12.35/4.33]
|   |   |   |   RacaCor = Amarela
|   |   |   |   |   ComorbidadeCardio = Não : Não (4.33/0) [1.44/0]
|   |   |   |   |   ComorbidadeCardio = Sim : Sim (27.67/3.61) [26.22/2.17]
|   |   |   |   |   ComorbidadeCardio = - : Sim (0/0) [0/0]
|   |   |   |   RacaCor = Parda
|   |   |   |   |   DorGarganta = Não
|   |   |   |   |   |   ComorbidadePulmao = Não
|   |   |   |   |   |   |   Tosse = Não
|   |   |   |   |   |   |   |   ComorbidadeCardio = Não : Não (2.89/0) [1.44/0]
|   |   |   |   |   |   |   |   ComorbidadeCardio = Sim : Sim (53.17/5.05) [10.91/2.89]
|   |   |   |   |   |   |   |   ComorbidadeCardio = - : Sim (0/0) [0/0]
|   |   |   |   |   |   |   Tosse = Sim : Sim (37.77/13.71) [24.7/8.66]
|   |   |   |   |   |   |   Tosse = - : Sim (0/0) [0/0]
|   |   |   |   |   |   ComorbidadePulmao = Sim : Sim (8.02/0) [0/0]
|   |   |   |   |   |   ComorbidadePulmao = - : Sim (0/0) [0/0]
|   |   |   |   |   DorGarganta = Sim : Não (5.77/0) [2.89/0]
|   |   |   |   |   DorGarganta = - : Sim (0/0) [0/0]
|   |   |   |   RacaCor = Indigena : Sim (0/0) [0/0]
|   |   |   |   RacaCor = Ignorado : Não (34.81/16.04) [4.33/0]
|   |   |   Sexo = I : Não (0.72/0) [0/0]
|   |   ComorbidadeDiabetes = - : Não (0/0) [1.44/0]
|   DificuldadeRespiratoria = Sim
|   |   RacaCor = Branca : Sim (311.24/150.85) [183.89/55.58]
|   |   RacaCor = Preta
|   |   |   Cefaleia = Não
|   |   |   |   DorGarganta = Não
|   |   |   |   |   ComorbidadeDiabetes = Não
|   |   |   |   |   |   Tosse = Não : Não (2.17/0) [1.44/0]
|   |   |   |   |   |   Tosse = Sim : Sim (34.97/2.89) [4.33/4.33]
|   |   |   |   |   |   Tosse = - : Sim (0/0) [0/0]
|   |   |   |   |   ComorbidadeDiabetes = Sim : Sim (42.26/2.17) [2.17/2.17]
|   |   |   |   |   ComorbidadeDiabetes = - : Sim (0/0) [0/0]
|   |   |   |   DorGarganta = Sim : Não (2.17/0) [0.72/0]
|   |   |   |   DorGarganta = - : Sim (0/0) [0/0]
|   |   |   Cefaleia = Sim
|   |   |   |   Diarreia = Não : Sim (34.89/10.83) [23.26/7.22]
|   |   |   |   Diarreia = Sim : Não (4.33/0) [1.44/0]
|   |   |   |   Diarreia = - : Sim (0/0) [0/0]
|   |   |   Cefaleia = - : Sim (0/0) [0/0]
|   |   RacaCor = Amarela : Sim (146.36/18.04) [103.37/15.16]
|   |   RacaCor = Parda
|   |   |   Coriza = Não
|   |   |   |   ComorbidadeDiabetes = Não
|   |   |   |   |   ComorbidadeObesidade = Não
|   |   |   |   |   |   ComorbidadePulmao = Não : Sim (178.76/58.46) [114.2/25.98]
|   |   |   |   |   |   ComorbidadePulmao = Sim
|   |   |   |   |   |   |   Sexo = F : Não (2.17/0) [1.44/0]
|   |   |   |   |   |   |   Sexo = M : Sim (26.22/2.17) [0/0]
|   |   |   |   |   |   |   Sexo = I : Sim (0/0) [0/0]
|   |   |   |   |   |   ComorbidadePulmao = - : Sim (0/0) [0/0]
|   |   |   |   |   ComorbidadeObesidade = Sim : Sim (26.95/2.89) [9.46/1.44]
|   |   |   |   |   ComorbidadeObesidade = - : Sim (0/0) [0/0]
|   |   |   |   ComorbidadeDiabetes = Sim
|   |   |   |   |   ComorbidadeRenal = Não
|   |   |   |   |   |   Cefaleia = Não
|   |   |   |   |   |   |   Tosse = Não : Sim (84.53/4.33) [9.46/1.44]
|   |   |   |   |   |   |   Tosse = Sim
|   |   |   |   |   |   |   |   Febre = Não
|   |   |   |   |   |   |   |   |   Sexo = F : Não (3.61/0) [2.17/0]
|   |   |   |   |   |   |   |   |   Sexo = M : Sim (11.63/3.61) [0.72/0.72]
|   |   |   |   |   |   |   |   |   Sexo = I : Não (0/0) [0/0]
|   |   |   |   |   |   |   |   Febre = Sim : Sim (69.21/5.05) [26.95/2.89]
|   |   |   |   |   |   |   |   Febre = - : Sim (0/0) [0/0]
|   |   |   |   |   |   |   Tosse = - : Sim (0/0) [0/0]
|   |   |   |   |   |   Cefaleia = Sim : Sim (36.33/12.27) [12.35/4.33]
|   |   |   |   |   |   Cefaleia = - : Sim (0/0) [0/0]
|   |   |   |   |   ComorbidadeRenal = Sim : Sim (32.08/0) [8.74/0.72]
|   |   |   |   |   ComorbidadeRenal = - : Sim (0/0) [0/0]
|   |   |   |   ComorbidadeDiabetes = - : Não (0/0) [0.72/0]
|   |   |   Coriza = Sim
|   |   |   |   ComorbidadePulmao = Não
|   |   |   |   |   Sexo = F : Não (36.25/16.04) [13.71/0]
|   |   |   |   |   Sexo = M : Sim (42.9/10.83) [32/7.94]
|   |   |   |   |   Sexo = I : Sim (0/0) [0/0]
|   |   |   |   ComorbidadePulmao = Sim : Não (5.77/0) [2.89/0]
|   |   |   |   ComorbidadePulmao = - : Sim (0/0) [0/0]
|   |   |   Coriza = - : Sim (0/0) [0/0]
|   |   RacaCor = Indigena : Sim (8.74/0.72) [0/0]
|   |   RacaCor = Ignorado : Sim (180.2/59.91) [140.42/28.15]
|   DificuldadeRespiratoria = - : Não (42.02/16.04) [10.83/0]
FaixaEtaria = 40 a 49 anos
|   DificuldadeRespiratoria = Não
|   |   Tosse = Não : Não (1359.16/8.02) [718.64/48.12]
|   |   Tosse = Sim : Não (1587.48/176.43) [757.05/64.16]
|   |   Tosse = - : Não (0.72/0) [0/0]
|   DificuldadeRespiratoria = Sim
|   |   RacaCor = Branca : Não (301.54/56.14) [129.36/16.04]
|   |   RacaCor = Preta
|   |   |   DorGarganta = Não
|   |   |   |   Febre = Não : Não (10.1/0) [5.77/0]
|   |   |   |   Febre = Sim
|   |   |   |   |   Diarreia = Não
|   |   |   |   |   |   ComorbidadeObesidade = Não : Sim (44.27/20.21) [21.81/5.77]
|   |   |   |   |   |   ComorbidadeObesidade = Sim : Sim (18.93/2.89) [1.44/1.44]
|   |   |   |   |   |   ComorbidadeObesidade = - : Não (1.44/0) [0/0]
|   |   |   |   |   Diarreia = Sim : Não (6.5/0) [2.17/0]
|   |   |   |   |   Diarreia = - : Sim (0/0) [0/0]
|   |   |   |   Febre = - : Não (0/0) [0/0]
|   |   |   DorGarganta = Sim : Não (24.54/0) [14.44/0]
|   |   |   DorGarganta = - : Não (0/0) [0/0]
|   |   RacaCor = Amarela
|   |   |   Diarreia = Não
|   |   |   |   Sexo = F
|   |   |   |   |   ComorbidadeCardio = Não : Não (17.32/0) [4.33/0]
|   |   |   |   |   ComorbidadeCardio = Sim : Sim (25.42/9.38) [28.39/4.33]
|   |   |   |   |   ComorbidadeCardio = - : Sim (0/0) [0/0]
|   |   |   |   Sexo = M
|   |   |   |   |   ComorbidadeCardio = Não : Sim (45.87/5.77) [15.96/7.94]
|   |   |   |   |   ComorbidadeCardio = Sim : Não (5.77/0) [1.44/0]
|   |   |   |   |   ComorbidadeCardio = - : Sim (0/0) [0/0]
|   |   |   |   Sexo = I : Sim (0/0) [0/0]
|   |   |   Diarreia = Sim : Não (12.99/0) [7.94/0]
|   |   |   Diarreia = - : Não (0/0) [0.72/0]
|   |   RacaCor = Parda
|   |   |   DorGarganta = Não
|   |   |   |   ComorbidadeDiabetes = Não
|   |   |   |   |   Sexo = F : Não (96.96/24.06) [76.11/32.08]
|   |   |   |   |   Sexo = M
|   |   |   |   |   |   Diarreia = Não
|   |   |   |   |   |   |   Febre = Não
|   |   |   |   |   |   |   |   Tosse = Não : Sim (18.93/2.89) [12.35/4.33]
|   |   |   |   |   |   |   |   Tosse = Sim : Não (18.85/8.02) [5.05/0]
|   |   |   |   |   |   |   |   Tosse = - : Sim (0/0) [0/0]
|   |   |   |   |   |   |   Febre = Sim
|   |   |   |   |   |   |   |   Tosse = Não : Não (9.38/0) [8.66/0]
|   |   |   |   |   |   |   |   Tosse = Sim
|   |   |   |   |   |   |   |   |   Cefaleia = Não
|   |   |   |   |   |   |   |   |   |   ComorbidadeCardio = Não : Sim (26.14/10.1) [10.18/2.17]
|   |   |   |   |   |   |   |   |   |   ComorbidadeCardio = Sim : Não (2.17/0) [1.44/0]
|   |   |   |   |   |   |   |   |   |   ComorbidadeCardio = - : Sim (0/0) [0/0]
|   |   |   |   |   |   |   |   |   Cefaleia = Sim : Não (26.79/8.02) [18.12/8.02]
|   |   |   |   |   |   |   |   |   Cefaleia = - : Não (0/0) [0/0]
|   |   |   |   |   |   |   |   Tosse = - : Não (0/0) [0/0]
|   |   |   |   |   |   |   Febre = - : Não (0/0) [0/0]
|   |   |   |   |   |   Diarreia = Sim : Não (14.44/0) [8.66/0]
|   |   |   |   |   |   Diarreia = - : Não (0/0) [0/0]
|   |   |   |   |   Sexo = I : Não (0/0) [0/0]
|   |   |   |   ComorbidadeDiabetes = Sim : Sim (15.88/15.88) [38.57/6.5]
|   |   |   |   ComorbidadeDiabetes = - : Não (0/0) [0/0]
|   |   |   DorGarganta = Sim : Não (127.91/16.04) [75.22/16.04]
|   |   |   DorGarganta = - : Sim (0/0) [8.02/0]
|   |   RacaCor = Indigena : Não (1.44/0) [0/0]
|   |   RacaCor = Ignorado
|   |   |   Cefaleia = Não
|   |   |   |   ComorbidadeRenal = Não
|   |   |   |   |   Tosse = Não : Não (10.1/0) [16.68/8.02]
|   |   |   |   |   Tosse = Sim
|   |   |   |   |   |   Diarreia = Não
|   |   |   |   |   |   |   ComorbidadeCardio = Não : Não (50.76/24.06) [10.1/0]
|   |   |   |   |   |   |   ComorbidadeCardio = Sim
|   |   |   |   |   |   |   |   Coriza = Não : Sim (17.48/1.44) [12.35/4.33]
|   |   |   |   |   |   |   |   Coriza = Sim : Não (2.89/0) [2.17/0]
|   |   |   |   |   |   |   |   Coriza = - : Sim (0/0) [0/0]
|   |   |   |   |   |   |   ComorbidadeCardio = - : Sim (0/0) [0/0]
|   |   |   |   |   |   Diarreia = Sim : Não (5.77/0) [5.05/0]
|   |   |   |   |   |   Diarreia = - : Não (0/0) [0/0]
|   |   |   |   |   Tosse = - : Não (0/0) [0/0]
|   |   |   |   ComorbidadeRenal = Sim : Sim (16.04/0) [0/0]
|   |   |   |   ComorbidadeRenal = - : Não (0/0) [0/0]
|   |   |   Cefaleia = Sim
|   |   |   |   Sexo = F : Não (49.08/0) [17.32/0]
|   |   |   |   Sexo = M
|   |   |   |   |   DorGarganta = Não
|   |   |   |   |   |   Tosse = Não : Não (4.33/0) [0.72/0]
|   |   |   |   |   |   Tosse = Sim
|   |   |   |   |   |   |   ComorbidadeDiabetes = Não : Não (19.57/8.02) [5.05/0]
|   |   |   |   |   |   |   ComorbidadeDiabetes = Sim : Sim (9.46/1.44) [0/0]
|   |   |   |   |   |   |   ComorbidadeDiabetes = - : Sim (0/0) [8.02/0]
|   |   |   |   |   |   Tosse = - : Sim (0/0) [0/0]
|   |   |   |   |   DorGarganta = Sim : Não (11.55/0) [3.61/0]
|   |   |   |   |   DorGarganta = - : Não (0/0) [0/0]
|   |   |   |   Sexo = I : Não (0/0) [0/0]
|   |   |   Cefaleia = - : Não (0.72/0) [0/0]
|   DificuldadeRespiratoria = - : Não (64.96/0) [36.09/0]
FaixaEtaria = 70 a 79 anos
|   DificuldadeRespiratoria = Não
|   |   Cefaleia = Não : Sim (724.41/315.41) [408.2/151.57]
|   |   Cefaleia = Sim : Não (215.73/64.16) [148.6/64.16]
|   |   Cefaleia = - : Sim (0/0) [0/0]
|   DificuldadeRespiratoria = Sim
|   |   Cefaleia = Não
|   |   |   Tosse = Não
|   |   |   |   RacaCor = Branca : Sim (125.27/12.99) [53.17/5.05]
|   |   |   |   RacaCor = Preta : Sim (26.22/2.17) [0.72/0.72]
|   |   |   |   RacaCor = Amarela : Sim (18.2/2.17) [42.26/2.17]
|   |   |   |   RacaCor = Parda
|   |   |   |   |   ComorbidadeDiabetes = Não : Sim (85.97/5.77) [35.69/3.61]
|   |   |   |   |   ComorbidadeDiabetes = Sim : Sim (72.9/0.72) [10.91/2.89]
|   |   |   |   |   ComorbidadeDiabetes = - : Sim (0/0) [0/0]
|   |   |   |   RacaCor = Indigena : Não (0.72/0) [0/0]
|   |   |   |   RacaCor = Ignorado : Sim (62.63/6.5) [42.26/2.17]
|   |   |   Tosse = Sim
|   |   |   |   RacaCor = Branca
|   |   |   |   |   DorGarganta = Não
|   |   |   |   |   |   Febre = Não
|   |   |   |   |   |   |   Coriza = Não
|   |   |   |   |   |   |   |   ComorbidadeDiabetes = Não : Sim (37.85/5.77) [10.91/2.89]
|   |   |   |   |   |   |   |   ComorbidadeDiabetes = Sim : Não (2.17/0) [0.72/0]
|   |   |   |   |   |   |   |   ComorbidadeDiabetes = - : Sim (0/0) [0/0]
|   |   |   |   |   |   |   Coriza = Sim : Não (3.61/0) [0/0]
|   |   |   |   |   |   |   Coriza = - : Sim (0/0) [0/0]
|   |   |   |   |   |   Febre = Sim
|   |   |   |   |   |   |   ComorbidadeCardio = Não : Sim (31.28/7.22) [26.95/2.89]
|   |   |   |   |   |   |   ComorbidadeCardio = Sim : Sim (112.19/7.94) [50.2/10.1]
|   |   |   |   |   |   |   ComorbidadeCardio = - : Sim (0/0) [0/0]
|   |   |   |   |   |   Febre = - : Sim (0/0) [0/0]
|   |   |   |   |   DorGarganta = Sim : Não (5.77/0) [0.72/0]
|   |   |   |   |   DorGarganta = - : Sim (0/0) [0/0]
|   |   |   |   RacaCor = Preta : Sim (63.35/7.22) [34.97/2.89]
|   |   |   |   RacaCor = Amarela : Sim (40.02/7.94) [51/2.89]
|   |   |   |   RacaCor = Parda
|   |   |   |   |   Sexo = F : Sim (50.84/18.77) [65.52/9.38]
|   |   |   |   |   Sexo = M
|   |   |   |   |   |   ComorbidadeCardio = Não : Sim (33.44/9.38) [9.46/1.44]
|   |   |   |   |   |   ComorbidadeCardio = Sim : Sim (75.79/3.61) [59.75/3.61]
|   |   |   |   |   |   ComorbidadeCardio = - : Sim (8.02/0) [0/0]
|   |   |   |   |   Sexo = I : Sim (0/0) [0/0]
|   |   |   |   RacaCor = Indigena : Sim (0/0) [0/0]
|   |   |   |   RacaCor = Ignorado
|   |   |   |   |   ComorbidadeObesidade = Não : Sim (150.05/13.71) [55.34/7.22]
|   |   |   |   |   ComorbidadeObesidade = Sim : Não (0.72/0) [0.72/0]
|   |   |   |   |   ComorbidadeObesidade = - : Sim (8.02/0) [0/0]
|   |   |   Tosse = - : Sim (0/0) [0/0]
|   |   Cefaleia = Sim : Sim (257.99/81.56) [123.58/35.37]
|   |   Cefaleia = - : Sim (32.8/0.72) [0/0]
|   DificuldadeRespiratoria = - : Não (10.1/0) [2.17/0]
FaixaEtaria = 0 a 4 anos : Não (149.57/16.04) [62.87/8.02]
FaixaEtaria = 50 a 59 anos
|   DificuldadeRespiratoria = Não
|   |   Cefaleia = Não : Não (1247.37/232.57) [595.21/48.12]
|   |   Cefaleia = Sim
|   |   |   RacaCor = Branca : Não (309/8.02) [146.52/0]
|   |   |   RacaCor = Preta : Não (67.12/0) [42.66/8.02]
|   |   |   RacaCor = Amarela : Não (40.42/0) [31.76/0]
|   |   |   RacaCor = Parda
|   |   |   |   Sexo = F
|   |   |   |   |   ComorbidadeObesidade = Não
|   |   |   |   |   |   Coriza = Não
|   |   |   |   |   |   |   DorGarganta = Não
|   |   |   |   |   |   |   |   ComorbidadeDiabetes = Não : Não (54.93/8.02) [29.59/0]
|   |   |   |   |   |   |   |   ComorbidadeDiabetes = Sim
|   |   |   |   |   |   |   |   |   Febre = Não : Sim (8.02/0) [8.74/0.72]
|   |   |   |   |   |   |   |   |   Febre = Sim : Não (10.1/0) [5.05/0]
|   |   |   |   |   |   |   |   |   Febre = - : Sim (0/0) [0/0]
|   |   |   |   |   |   |   |   ComorbidadeDiabetes = - : Não (0/0) [0/0]
|   |   |   |   |   |   |   DorGarganta = Sim : Não (26.71/0) [10.1/0]
|   |   |   |   |   |   |   DorGarganta = - : Não (0/0) [0/0]
|   |   |   |   |   |   Coriza = Sim : Não (72.18/0) [44.75/0]
|   |   |   |   |   |   Coriza = - : Não (0/0) [0/0]
|   |   |   |   |   ComorbidadeObesidade = Sim : Não (19.57/8.02) [5.05/0]
|   |   |   |   |   ComorbidadeObesidade = - : Não (2.17/0) [0.72/0]
|   |   |   |   Sexo = M : Não (116.2/0) [59.26/8.02]
|   |   |   |   Sexo = I : Não (0/0) [0/0]
|   |   |   RacaCor = Indigena : Não (0/0) [0/0]
|   |   |   RacaCor = Ignorado : Não (169.86/24.06) [75.06/0]
|   |   Cefaleia = - : Não (0/0) [0/0]
|   DificuldadeRespiratoria = Sim
|   |   Coriza = Não
|   |   |   Cefaleia = Não
|   |   |   |   ComorbidadeDiabetes = Não
|   |   |   |   |   DorGarganta = Não
|   |   |   |   |   |   ComorbidadeObesidade = Não : Sim (401.22/120.53) [216.69/56.3]
|   |   |   |   |   |   ComorbidadeObesidade = Sim : Não (6.5/0) [6.5/0]
|   |   |   |   |   |   ComorbidadeObesidade = - : Não (1.44/0) [0.72/0]
|   |   |   |   |   DorGarganta = Sim : Não (18.04/0) [20.29/8.02]
|   |   |   |   |   DorGarganta = - : Sim (0/0) [0/0]
|   |   |   |   ComorbidadeDiabetes = Sim
|   |   |   |   |   Sexo = F
|   |   |   |   |   |   RacaCor = Branca
|   |   |   |   |   |   |   ComorbidadeRenal = Não : Não (3.61/0) [4.33/0]
|   |   |   |   |   |   |   ComorbidadeRenal = Sim : Sim (8.02/0) [8.02/0]
|   |   |   |   |   |   |   ComorbidadeRenal = - : Sim (0/0) [0/0]
|   |   |   |   |   |   RacaCor = Preta
|   |   |   |   |   |   |   Febre = Não : Sim (9.46/1.44) [0/0]
|   |   |   |   |   |   |   Febre = Sim : Não (3.61/0) [2.17/0]
|   |   |   |   |   |   |   Febre = - : Sim (0/0) [0/0]
|   |   |   |   |   |   RacaCor = Amarela : Não (2.89/0) [0/0]
|   |   |   |   |   |   RacaCor = Parda
|   |   |   |   |   |   |   ComorbidadeCardio = Não : Sim (8.02/0) [1.44/1.44]
|   |   |   |   |   |   |   ComorbidadeCardio = Sim
|   |   |   |   |   |   |   |   Tosse = Não : Sim (8.74/0.72) [0.72/0.72]
|   |   |   |   |   |   |   |   Tosse = Sim : Não (2.17/0) [3.61/0]
|   |   |   |   |   |   |   |   Tosse = - : Sim (0/0) [0/0]
|   |   |   |   |   |   |   ComorbidadeCardio = - : Sim (0/0) [0/0]
|   |   |   |   |   |   RacaCor = Indigena : Sim (0/0) [0/0]
|   |   |   |   |   |   RacaCor = Ignorado : Sim (9.46/1.44) [1.44/1.44]
|   |   |   |   |   Sexo = M
|   |   |   |   |   |   RacaCor = Branca : Sim (29.11/5.05) [13.07/5.05]
|   |   |   |   |   |   RacaCor = Preta : Sim (9.46/1.44) [0/0]
|   |   |   |   |   |   RacaCor = Amarela : Sim (8.02/0) [9.46/1.44]
|   |   |   |   |   |   RacaCor = Parda : Sim (72.1/7.94) [11.63/3.61]
|   |   |   |   |   |   RacaCor = Indigena : Sim (0/0) [0/0]
|   |   |   |   |   |   RacaCor = Ignorado : Sim (17.48/1.44) [19.65/3.61]
|   |   |   |   |   Sexo = I : Sim (0/0) [0/0]
|   |   |   |   ComorbidadeDiabetes = - : Sim (0.72/0.72) [8.02/0]
|   |   |   Cefaleia = Sim
|   |   |   |   Sexo = F : Não (119.33/24.06) [58.54/8.02]
|   |   |   |   Sexo = M
|   |   |   |   |   ComorbidadeObesidade = Não
|   |   |   |   |   |   Tosse = Não : Não (15.16/0) [3.61/0]
|   |   |   |   |   |   Tosse = Sim
|   |   |   |   |   |   |   RacaCor = Branca : Não (34.08/16.04) [17.4/8.02]
|   |   |   |   |   |   |   RacaCor = Preta : Sim (18.2/2.17) [0.72/0.72]
|   |   |   |   |   |   |   RacaCor = Amarela : Não (2.17/0) [0.72/0]
|   |   |   |   |   |   |   RacaCor = Parda
|   |   |   |   |   |   |   |   ComorbidadeDiabetes = Não : Não (21.01/8.02) [8.66/0]
|   |   |   |   |   |   |   |   ComorbidadeDiabetes = Sim : Sim (26.22/2.17) [2.17/2.17]
|   |   |   |   |   |   |   |   ComorbidadeDiabetes = - : Não (0.72/0) [0/0]
|   |   |   |   |   |   |   RacaCor = Indigena : Não (0.72/0) [0/0]
|   |   |   |   |   |   |   RacaCor = Ignorado
|   |   |   |   |   |   |   |   Diarreia = Não : Não (5.05/0) [2.17/0]
|   |   |   |   |   |   |   |   Diarreia = Sim : Sim (8.74/0.72) [1.44/1.44]
|   |   |   |   |   |   |   |   Diarreia = - : Não (0/0) [0/0]
|   |   |   |   |   |   Tosse = - : Não (0/0) [0/0]
|   |   |   |   |   ComorbidadeObesidade = Sim : Sim (35.69/3.61) [9.46/1.44]
|   |   |   |   |   ComorbidadeObesidade = - : Não (0.72/0) [0/0]
|   |   |   |   Sexo = I : Não (0/0) [0/0]
|   |   |   Cefaleia = - : Sim (0/0) [0/0]
|   |   Coriza = Sim
|   |   |   Sexo = F
|   |   |   |   RacaCor = Branca : Não (49.08/0) [39.14/16.04]
|   |   |   |   RacaCor = Preta : Não (8.66/0) [5.05/0]
|   |   |   |   RacaCor = Amarela : Não (8.66/0) [6.5/0]
|   |   |   |   RacaCor = Parda
|   |   |   |   |   ComorbidadePulmao = Não
|   |   |   |   |   |   DorGarganta = Não
|   |   |   |   |   |   |   ComorbidadeCardio = Não : Não (10.83/0) [7.22/0]
|   |   |   |   |   |   |   ComorbidadeCardio = Sim : Sim (15.96/7.94) [21.09/5.05]
|   |   |   |   |   |   |   ComorbidadeCardio = - : Não (0/0) [0/0]
|   |   |   |   |   |   DorGarganta = Sim : Não (25.26/0) [8.66/0]
|   |   |   |   |   |   DorGarganta = - : Não (0/0) [0/0]
|   |   |   |   |   ComorbidadePulmao = Sim : Sim (10.18/2.17) [1.44/1.44]
|   |   |   |   |   ComorbidadePulmao = - : Não (0/0) [0/0]
|   |   |   |   RacaCor = Indigena : Não (0/0) [0/0]
|   |   |   |   RacaCor = Ignorado
|   |   |   |   |   ComorbidadeObesidade = Não : Não (22.45/8.02) [5.05/0]
|   |   |   |   |   ComorbidadeObesidade = Sim : Sim (8.02/0) [1.44/1.44]
|   |   |   |   |   ComorbidadeObesidade = - : Não (0/0) [0/0]
|   |   |   Sexo = M
|   |   |   |   RacaCor = Branca
|   |   |   |   |   DorGarganta = Não : Sim (29.03/12.99) [14.52/6.5]
|   |   |   |   |   DorGarganta = Sim : Não (8.66/0) [7.22/0]
|   |   |   |   |   DorGarganta = - : Não (0/0) [0/0]
|   |   |   |   RacaCor = Preta
|   |   |   |   |   Cefaleia = Não : Sim (9.46/1.44) [2.89/2.89]
|   |   |   |   |   Cefaleia = Sim : Não (3.61/0) [1.44/0]
|   |   |   |   |   Cefaleia = - : Não (0/0) [0/0]
|   |   |   |   RacaCor = Amarela : Sim (20.37/4.33) [18.2/2.17]
|   |   |   |   RacaCor = Parda : Não (46.35/16.04) [25.34/8.02]
|   |   |   |   RacaCor = Indigena : Não (0/0) [0/0]
|   |   |   |   RacaCor = Ignorado : Não (18.77/0) [6.5/0]
|   |   |   Sexo = I : Não (0/0) [0/0]
|   |   Coriza = - : Sim (24.78/0.72) [8.02/0]
|   DificuldadeRespiratoria = - : Não (58.46/0) [25.26/0]
FaixaEtaria = 80 a 89 anos
|   DificuldadeRespiratoria = Não
|   |   Cefaleia = Não : Sim (632.83/143.63) [295.36/62.79]
|   |   Cefaleia = Sim
|   |   |   RacaCor = Branca
|   |   |   |   Sexo = F : Não (18.04/0) [14.52/8.02]
|   |   |   |   Sexo = M
|   |   |   |   |   ComorbidadeDiabetes = Não : Não (2.89/0) [4.33/0]
|   |   |   |   |   ComorbidadeDiabetes = Sim : Sim (26.22/2.17) [8.02/0]
|   |   |   |   |   ComorbidadeDiabetes = - : Sim (0/0) [0/0]
|   |   |   |   Sexo = I : Sim (0/0) [0/0]
|   |   |   RacaCor = Preta : Sim (28.39/4.33) [9.46/1.44]
|   |   |   RacaCor = Amarela : Não (5.05/0) [1.44/0]
|   |   |   RacaCor = Parda
|   |   |   |   DorGarganta = Não
|   |   |   |   |   ComorbidadeCardio = Não : Sim (18.2/2.17) [1.44/1.44]
|   |   |   |   |   ComorbidadeCardio = Sim
|   |   |   |   |   |   Coriza = Não : Não (7.22/0) [2.17/0]
|   |   |   |   |   |   Coriza = Sim : Sim (8.74/0.72) [0/0]
|   |   |   |   |   |   Coriza = - : Não (0/0) [0/0]
|   |   |   |   |   ComorbidadeCardio = - : Sim (0/0) [0/0]
|   |   |   |   DorGarganta = Sim : Não (3.61/0) [1.44/0]
|   |   |   |   DorGarganta = - : Sim (0/0) [0/0]
|   |   |   RacaCor = Indigena : Sim (0/0) [0/0]
|   |   |   RacaCor = Ignorado : Não (6.5/0) [13.79/8.02]
|   |   Cefaleia = - : Sim (0/0) [0/0]
|   DificuldadeRespiratoria = Sim
|   |   Diarreia = Não
|   |   |   Cefaleia = Não
|   |   |   |   RacaCor = Branca : Sim (279.72/23.1) [74.26/10.1]
|   |   |   |   RacaCor = Preta
|   |   |   |   |   Tosse = Não
|   |   |   |   |   |   Sexo = F : Sim (8.74/0.72) [0/0]
|   |   |   |   |   |   Sexo = M : Não (2.17/0) [1.44/0]
|   |   |   |   |   |   Sexo = I : Sim (0/0) [0/0]
|   |   |   |   |   Tosse = Sim : Sim (56.86/0.72) [17.48/1.44]
|   |   |   |   |   Tosse = - : Sim (0/0) [0/0]
|   |   |   |   RacaCor = Amarela : Sim (99.84/3.61) [42.26/2.17]
|   |   |   |   RacaCor = Parda
|   |   |   |   |   Coriza = Não
|   |   |   |   |   |   ComorbidadeCardio = Não : Sim (90.38/2.17) [51/2.89]
|   |   |   |   |   |   ComorbidadeCardio = Sim : Sim (106.34/10.1) [77.23/5.05]
|   |   |   |   |   |   ComorbidadeCardio = - : Sim (0/0) [0/0]
|   |   |   |   |   Coriza = Sim : Sim (19.65/3.61) [0/0]
|   |   |   |   |   Coriza = - : Sim (0/0) [0/0]
|   |   |   |   RacaCor = Indigena : Sim (0/0) [0/0]
|   |   |   |   RacaCor = Ignorado : Sim (147.08/18.77) [42.26/2.17]
|   |   |   Cefaleia = Sim : Sim (123.74/19.49) [55.34/7.22]
|   |   |   Cefaleia = - : Sim (0/0) [8.02/0]
|   |   Diarreia = Sim : Sim (50.92/10.83) [33.52/1.44]
|   |   Diarreia = - : Sim (8.02/0) [8.02/0]
|   DificuldadeRespiratoria = -
|   |   RacaCor = Branca : Sim (8.02/0) [0/0]
|   |   RacaCor = Preta : Não (0/0) [0/0]
|   |   RacaCor = Amarela : Não (0/0) [0/0]
|   |   RacaCor = Parda : Não (0/0) [0/0]
|   |   RacaCor = Indigena : Não (0/0) [0/0]
|   |   RacaCor = Ignorado : Não (4.33/0) [4.33/0]
FaixaEtaria = 05 a 9 anos : Não (98.24/8.02) [54.13/0]
FaixaEtaria = 90 anos ou mais
|   DificuldadeRespiratoria = Não
|   |   RacaCor = Branca
|   |   |   ComorbidadeCardio = Não : Sim (34.16/10.1) [18.93/2.89]
|   |   |   ComorbidadeCardio = Sim : Sim (70.65/6.5) [19.65/3.61]
|   |   |   ComorbidadeCardio = - : Sim (0/0) [0/0]
|   |   RacaCor = Preta : Não (2.17/0) [2.17/0]
|   |   RacaCor = Amarela : Sim (25.5/1.44) [10.18/2.17]
|   |   RacaCor = Parda : Sim (29.11/5.05) [17.48/1.44]
|   |   RacaCor = Indigena : Sim (0/0) [0/0]
|   |   RacaCor = Ignorado
|   |   |   ComorbidadePulmao = Não : Sim (34.16/10.1) [45.87/5.77]
|   |   |   ComorbidadePulmao = Sim : Sim (16.76/0.72) [18.2/2.17]
|   |   |   ComorbidadePulmao = - : Sim (0/0) [0/0]
|   DificuldadeRespiratoria = Sim
|   |   ComorbidadeDiabetes = Não : Sim (245.56/12.99) [80.12/7.94]
|   |   ComorbidadeDiabetes = Sim : Sim (64.16/0) [34.24/2.17]
|   |   ComorbidadeDiabetes = - : Sim (0/0) [0/0]
|   DificuldadeRespiratoria = - : Não (1.44/0) [0.72/0]
FaixaEtaria = 30 a 39 anos
|   DificuldadeRespiratoria = Não : Não (3259.24/48.12) [1626.61/48.12]
|   DificuldadeRespiratoria = Sim
|   |   ComorbidadeDiabetes = Não
|   |   |   Cefaleia = Não
|   |   |   |   RacaCor = Branca : Não (127.99/24.06) [61.43/8.02]
|   |   |   |   RacaCor = Preta : Não (20.21/0) [15.96/8.02]
|   |   |   |   RacaCor = Amarela : Não (18.12/8.02) [14.52/8.02]
|   |   |   |   RacaCor = Parda
|   |   |   |   |   Tosse = Não
|   |   |   |   |   |   Sexo = F : Não (18.77/0) [6.5/0]
|   |   |   |   |   |   Sexo = M
|   |   |   |   |   |   |   Coriza = Não
|   |   |   |   |   |   |   |   DorGarganta = Não : Sim (29.83/5.77) [10.91/2.89]
|   |   |   |   |   |   |   |   DorGarganta = Sim : Não (2.17/0) [1.44/0]
|   |   |   |   |   |   |   |   DorGarganta = - : Sim (0/0) [0/0]
|   |   |   |   |   |   |   Coriza = Sim : Não (3.61/0) [1.44/0]
|   |   |   |   |   |   |   Coriza = - : Sim (0/0) [0/0]
|   |   |   |   |   |   Sexo = I : Não (0/0) [0/0]
|   |   |   |   |   Tosse = Sim : Não (62.79/0) [59.43/24.06]
|   |   |   |   |   Tosse = - : Não (0/0) [0/0]
|   |   |   |   RacaCor = Indigena : Sim (8.02/0) [0.72/0.72]
|   |   |   |   RacaCor = Ignorado : Não (54.93/8.02) [30.39/8.02]
|   |   |   Cefaleia = Sim
|   |   |   |   Febre = Não : Não (137.86/0) [69.29/0]
|   |   |   |   Febre = Sim
|   |   |   |   |   RacaCor = Branca : Não (140.82/8.02) [71.45/0]
|   |   |   |   |   RacaCor = Preta : Não (28.95/8.02) [12.27/0]
|   |   |   |   |   RacaCor = Amarela : Não (20.93/0) [9.38/0]
|   |   |   |   |   RacaCor = Parda
|   |   |   |   |   |   ComorbidadeObesidade = Não : Não (116.2/0) [51.25/0]
|   |   |   |   |   |   ComorbidadeObesidade = Sim
|   |   |   |   |   |   |   ComorbidadeCardio = Não : Não (5.77/0) [3.61/0]
|   |   |   |   |   |   |   ComorbidadeCardio = Sim : Sim (8.74/0.72) [10.91/2.89]
|   |   |   |   |   |   |   ComorbidadeCardio = - : Sim (0/0) [0/0]
|   |   |   |   |   |   ComorbidadeObesidade = - : Não (0/0) [0/0]
|   |   |   |   |   RacaCor = Indigena : Não (0/0) [0/0]
|   |   |   |   |   RacaCor = Ignorado
|   |   |   |   |   |   Coriza = Não
|   |   |   |   |   |   |   Sexo = F
|   |   |   |   |   |   |   |   Tosse = Não : Não (5.05/0) [0/0]
|   |   |   |   |   |   |   |   Tosse = Sim : Sim (12.35/4.33) [13.07/5.05]
|   |   |   |   |   |   |   |   Tosse = - : Sim (0/0) [0/0]
|   |   |   |   |   |   |   Sexo = M : Não (11.55/0) [6.5/0]
|   |   |   |   |   |   |   Sexo = I : Não (0/0) [0/0]
|   |   |   |   |   |   Coriza = Sim : Não (22.37/0) [17.4/8.02]
|   |   |   |   |   |   Coriza = - : Não (0/0) [0/0]
|   |   |   |   Febre = - : Não (0/0) [0/0]
|   |   |   Cefaleia = - : Não (0/0) [0/0]
|   |   ComorbidadeDiabetes = Sim
|   |   |   RacaCor = Branca : Não (8.66/0) [5.77/0]
|   |   |   RacaCor = Preta : Sim (10.18/2.17) [0.72/0.72]
|   |   |   RacaCor = Amarela : Não (5.05/0) [0/0]
|   |   |   RacaCor = Parda
|   |   |   |   Coriza = Não
|   |   |   |   |   ComorbidadeCardio = Não : Sim (26.95/2.89) [9.46/1.44]
|   |   |   |   |   ComorbidadeCardio = Sim : Não (2.17/0) [0.72/0]
|   |   |   |   |   ComorbidadeCardio = - : Sim (0/0) [0/0]
|   |   |   |   Coriza = Sim : Não (5.77/0) [2.17/0]
|   |   |   |   Coriza = - : Sim (0/0) [0/0]
|   |   |   RacaCor = Indigena : Não (0/0) [0/0]
|   |   |   RacaCor = Ignorado : Não (4.33/0) [4.33/0]
|   |   ComorbidadeDiabetes = - : Sim (16.76/0.72) [0.72/0.72]
|   DificuldadeRespiratoria = - : Não (91.66/0) [51.97/0]
FaixaEtaria = 10 a 19 anos : Não (409.96/0) [193.51/8.02]
FaixaEtaria = 20 a 29 anos
|   DificuldadeRespiratoria = Não : Não (1685.64/32.08) [824.25/0]
|   DificuldadeRespiratoria = Sim
|   |   Coriza = Não
|   |   |   DorGarganta = Não
|   |   |   |   RacaCor = Branca : Não (70.89/16.04) [27.51/8.02]
|   |   |   |   RacaCor = Preta
|   |   |   |   |   Sexo = F : Não (3.61/0) [1.44/0]
|   |   |   |   |   Sexo = M : Sim (20.37/4.33) [1.44/1.44]
|   |   |   |   |   Sexo = I : Sim (0/0) [0/0]
|   |   |   |   RacaCor = Amarela
|   |   |   |   |   ComorbidadePulmao = Não : Não (7.22/0) [6.5/0]
|   |   |   |   |   ComorbidadePulmao = Sim : Sim (8.02/0) [8.02/0]
|   |   |   |   |   ComorbidadePulmao = - : Sim (0/0) [0/0]
|   |   |   |   RacaCor = Parda : Não (56.38/8.02) [28.87/0]
|   |   |   |   RacaCor = Indigena : Não (0/0) [0/0]
|   |   |   |   RacaCor = Ignorado : Não (27.51/8.02) [10.83/0]
|   |   |   DorGarganta = Sim : Não (67.12/0) [38.98/0]
|   |   |   DorGarganta = - : Não (0/0) [0/0]
|   |   Coriza = Sim : Não (207.15/0) [101.77/0]
|   |   Coriza = - : Não (0/0) [0/0]
|   DificuldadeRespiratoria = - : Não (35.37/0) [22.37/0]

Size of the tree : 663

Cost Matrix
  0     4   
 50    -0.5 


Time taken to build model: 0.12 seconds

=== Stratified cross-validation ===
=== Summary ===

Correctly Classified Instances       29896               89.9615 %
Incorrectly Classified Instances      3336               10.0385 %
Kappa statistic                          0.2942
Mean absolute error                      0.1485
Root mean squared error                  0.2692
Relative absolute error                202.446  %
Root relative squared error            140.5573 %
Total Number of Instances            33232     

=== Detailed Accuracy By Class ===

                 TP Rate  FP Rate  Precision  Recall   F-Measure  MCC      ROC Area  PRC Area  Class
                 0,909    0,339    0,985      0,909    0,946      0,345    0,845     0,986     Não
                 0,661    0,091    0,224      0,661    0,334      0,345    0,845     0,282     Sim
Weighted Avg.    0,900    0,329    0,956      0,900    0,922      0,345    0,845     0,960     

=== Confusion Matrix ===

     a     b   <-- classified as
 29058  2907 |     a = Não
   429   838 |     b = Sim

