=== Run information ===

Scheme:       weka.classifiers.trees.REPTree -M 2 -V 0.001 -N 3 -S 1 -L -1 -I 0.0
Relation:     MICRODADOS_obitos_march-weka.filters.unsupervised.attribute.Remove-R1-7,11,26-27
Instances:    143
Attributes:   18
              FaixaEtaria
              Sexo
              RacaCor
              Febre
              DificuldadeRespiratoria
              Tosse
              Coriza
              DorGarganta
              Diarreia
              Cefaleia
              ComorbidadePulmao
              ComorbidadeCardio
              ComorbidadeRenal
              ComorbidadeDiabetes
              ComorbidadeTabagismo
              ComorbidadeObesidade
              FicouInternado
              Obito
Test mode:    10-fold cross-validation

=== Classifier model (full training set) ===


REPTree
============
 : Não (95/7) [48/4]

Size of the tree : 1

Time taken to build model: 0 seconds

=== Stratified cross-validation ===
=== Summary ===

Correctly Classified Instances         131               91.6084 %
Incorrectly Classified Instances        12                8.3916 %
Kappa statistic                         -0.013 
Mean absolute error                      0.1385
Root mean squared error                  0.2807
Relative absolute error                 93.8721 %
Root relative squared error            105.2239 %
Total Number of Instances              143     

=== Detailed Accuracy By Class ===

                 TP Rate  FP Rate  Precision  Recall   F-Measure  MCC      ROC Area  PRC Area  Class
                 0,992    1,000    0,923      0,992    0,956      -0,024   0,546     0,928     Não
                 0,000    0,008    0,000      0,000    0,000      -0,024   0,546     0,093     Sim
Weighted Avg.    0,916    0,924    0,852      0,916    0,883      -0,024   0,546     0,863     

=== Confusion Matrix ===

   a   b   <-- classified as
 131   1 |   a = Não
  11   0 |   b = Sim

