=== Run information ===

Scheme:       weka.classifiers.trees.REPTree -M 2 -V 0.001 -N 3 -S 1 -L -1 -I 0.0
Relation:     MICRODADOS_obitos-weka.filters.unsupervised.attribute.Remove-R1-7,11-weka.filters.unsupervised.attribute.Remove-R17-19-weka.filters.supervised.instance.SMOTE-C0-K100-P2422.9-S1
Instances:    63930
Attributes:   17
              FaixaEtaria
              Sexo
              RacaCor
              Febre
              DificuldadeRespiratoria
              Tosse
              Coriza
              DorGarganta
              Diarreia
              Cefaleia
              ComorbidadePulmao
              ComorbidadeCardio
              ComorbidadeRenal
              ComorbidadeDiabetes
              ComorbidadeTabagismo
              ComorbidadeObesidade
              Obito
Test mode:    10-fold cross-validation

=== Classifier model (full training set) ===


REPTree
============

FaixaEtaria = 60 a 69 anos
|   RacaCor = Branca
|   |   Sexo = F : Não (386/13) [199/7]
|   |   Sexo = M
|   |   |   Cefaleia = Não
|   |   |   |   Coriza = Não
|   |   |   |   |   Tosse = Não
|   |   |   |   |   |   Febre = Não : Sim (101/44) [41/15]
|   |   |   |   |   |   Febre = Sim : Não (29/4) [15/1]
|   |   |   |   |   |   Febre = - : Não (0/0) [0/0]
|   |   |   |   |   Tosse = Sim
|   |   |   |   |   |   DorGarganta = Não
|   |   |   |   |   |   |   Febre = Não
|   |   |   |   |   |   |   |   ComorbidadeCardio = Não : Sim (49/17) [25/7]
|   |   |   |   |   |   |   |   ComorbidadeCardio = Sim : Não (11/0) [7/0]
|   |   |   |   |   |   |   |   ComorbidadeCardio = - : Sim (0/0) [0/0]
|   |   |   |   |   |   |   Febre = Sim
|   |   |   |   |   |   |   |   Diarreia = Não
|   |   |   |   |   |   |   |   |   ComorbidadeDiabetes = Não : Sim (435/31) [221/15]
|   |   |   |   |   |   |   |   |   ComorbidadeDiabetes = Sim
|   |   |   |   |   |   |   |   |   |   ComorbidadeObesidade = Não
|   |   |   |   |   |   |   |   |   |   |   DificuldadeRespiratoria = Não : Sim (40/8) [17/0]
|   |   |   |   |   |   |   |   |   |   |   DificuldadeRespiratoria = Sim : Não (10/4) [4/1]
|   |   |   |   |   |   |   |   |   |   |   DificuldadeRespiratoria = - : Sim (0/0) [0/0]
|   |   |   |   |   |   |   |   |   |   ComorbidadeObesidade = Sim : Não (2/0) [0/0]
|   |   |   |   |   |   |   |   |   |   ComorbidadeObesidade = - : Sim (0/0) [0/0]
|   |   |   |   |   |   |   |   |   ComorbidadeDiabetes = - : Sim (1/0) [0/0]
|   |   |   |   |   |   |   |   Diarreia = Sim : Não (9/1) [3/0]
|   |   |   |   |   |   |   |   Diarreia = - : Sim (0/0) [0/0]
|   |   |   |   |   |   |   Febre = - : Sim (0/0) [0/0]
|   |   |   |   |   |   DorGarganta = Sim : Não (18/1) [7/0]
|   |   |   |   |   |   DorGarganta = - : Sim (0/0) [0/0]
|   |   |   |   |   Tosse = - : Sim (0/0) [0/0]
|   |   |   |   Coriza = Sim : Não (45/1) [26/2]
|   |   |   |   Coriza = - : Sim (0/0) [0/0]
|   |   |   Cefaleia = Sim : Não (156/6) [74/3]
|   |   |   Cefaleia = - : Não (1/0) [1/1]
|   |   Sexo = I : Não (0/0) [0/0]
|   RacaCor = Preta : Não (170/16) [60/7]
|   RacaCor = Amarela : Não (128/21) [76/14]
|   RacaCor = Parda
|   |   Cefaleia = Não
|   |   |   Febre = Não
|   |   |   |   Sexo = F
|   |   |   |   |   ComorbidadeObesidade = Não
|   |   |   |   |   |   DificuldadeRespiratoria = Não : Não (60/4) [28/1]
|   |   |   |   |   |   DificuldadeRespiratoria = Sim
|   |   |   |   |   |   |   Tosse = Não
|   |   |   |   |   |   |   |   ComorbidadeDiabetes = Não : Não (8/1) [3/0]
|   |   |   |   |   |   |   |   ComorbidadeDiabetes = Sim : Sim (3/1) [1/0]
|   |   |   |   |   |   |   |   ComorbidadeDiabetes = - : Não (0/0) [0/0]
|   |   |   |   |   |   |   Tosse = Sim : Não (9/0) [7/0]
|   |   |   |   |   |   |   Tosse = - : Não (0/0) [0/0]
|   |   |   |   |   |   DificuldadeRespiratoria = - : Não (0/0) [0/0]
|   |   |   |   |   ComorbidadeObesidade = Sim : Não (4/1) [3/1]
|   |   |   |   |   ComorbidadeObesidade = - : Sim (1/0) [0/0]
|   |   |   |   Sexo = M
|   |   |   |   |   Coriza = Não
|   |   |   |   |   |   ComorbidadeCardio = Não
|   |   |   |   |   |   |   DificuldadeRespiratoria = Não
|   |   |   |   |   |   |   |   Tosse = Não : Sim (72/18) [30/11]
|   |   |   |   |   |   |   |   Tosse = Sim : Não (14/1) [7/0]
|   |   |   |   |   |   |   |   Tosse = - : Sim (0/0) [0/0]
|   |   |   |   |   |   |   DificuldadeRespiratoria = Sim : Sim (55/6) [31/4]
|   |   |   |   |   |   |   DificuldadeRespiratoria = - : Sim (0/0) [0/0]
|   |   |   |   |   |   ComorbidadeCardio = Sim : Não (32/11) [12/2]
|   |   |   |   |   |   ComorbidadeCardio = - : Sim (0/0) [0/0]
|   |   |   |   |   Coriza = Sim : Não (21/0) [7/1]
|   |   |   |   |   Coriza = - : Sim (0/0) [0/0]
|   |   |   |   Sexo = I : Não (0/0) [0/0]
|   |   |   Febre = Sim
|   |   |   |   Coriza = Não
|   |   |   |   |   Tosse = Não
|   |   |   |   |   |   DificuldadeRespiratoria = Não : Não (24/2) [19/3]
|   |   |   |   |   |   DificuldadeRespiratoria = Sim : Sim (75/15) [34/9]
|   |   |   |   |   |   DificuldadeRespiratoria = - : Sim (0/0) [0/0]
|   |   |   |   |   Tosse = Sim
|   |   |   |   |   |   DorGarganta = Não
|   |   |   |   |   |   |   DificuldadeRespiratoria = Não
|   |   |   |   |   |   |   |   ComorbidadeDiabetes = Não
|   |   |   |   |   |   |   |   |   Sexo = F : Não (9/0) [9/1]
|   |   |   |   |   |   |   |   |   Sexo = M : Sim (434/25) [218/19]
|   |   |   |   |   |   |   |   |   Sexo = I : Sim (0/0) [0/0]
|   |   |   |   |   |   |   |   ComorbidadeDiabetes = Sim : Sim (862/13) [426/10]
|   |   |   |   |   |   |   |   ComorbidadeDiabetes = - : Sim (0/0) [0/0]
|   |   |   |   |   |   |   DificuldadeRespiratoria = Sim
|   |   |   |   |   |   |   |   ComorbidadeObesidade = Não
|   |   |   |   |   |   |   |   |   ComorbidadePulmao = Não
|   |   |   |   |   |   |   |   |   |   ComorbidadeDiabetes = Não
|   |   |   |   |   |   |   |   |   |   |   Sexo = F
|   |   |   |   |   |   |   |   |   |   |   |   ComorbidadeCardio = Não : Não (3/1) [5/0]
|   |   |   |   |   |   |   |   |   |   |   |   ComorbidadeCardio = Sim : Sim (94/1) [52/0]
|   |   |   |   |   |   |   |   |   |   |   |   ComorbidadeCardio = - : Sim (0/0) [0/0]
|   |   |   |   |   |   |   |   |   |   |   Sexo = M : Sim (1351/8) [716/6]
|   |   |   |   |   |   |   |   |   |   |   Sexo = I : Sim (0/0) [0/0]
|   |   |   |   |   |   |   |   |   |   ComorbidadeDiabetes = Sim : Sim (2014/7) [963/3]
|   |   |   |   |   |   |   |   |   |   ComorbidadeDiabetes = - : Sim (0/0) [0/0]
|   |   |   |   |   |   |   |   |   ComorbidadePulmao = Sim : Não (3/1) [3/1]
|   |   |   |   |   |   |   |   |   ComorbidadePulmao = - : Sim (0/0) [0/0]
|   |   |   |   |   |   |   |   ComorbidadeObesidade = Sim : Não (3/0) [0/0]
|   |   |   |   |   |   |   |   ComorbidadeObesidade = - : Não (1/0) [0/0]
|   |   |   |   |   |   |   DificuldadeRespiratoria = - : Sim (0/0) [0/0]
|   |   |   |   |   |   DorGarganta = Sim : Não (20/2) [13/0]
|   |   |   |   |   |   DorGarganta = - : Sim (0/0) [0/0]
|   |   |   |   |   Tosse = - : Sim (0/0) [0/0]
|   |   |   |   Coriza = Sim : Não (54/7) [26/1]
|   |   |   |   Coriza = - : Sim (0/0) [0/0]
|   |   |   Febre = - : Sim (0/0) [0/0]
|   |   Cefaleia = Sim : Não (305/19) [133/7]
|   |   Cefaleia = - : Não (1/1) [1/0]
|   RacaCor = Indigena : Não (3/1) [1/0]
|   RacaCor = Ignorado
|   |   DificuldadeRespiratoria = Não : Não (363/8) [163/6]
|   |   DificuldadeRespiratoria = Sim
|   |   |   ComorbidadeCardio = Não
|   |   |   |   Febre = Não : Não (19/2) [7/1]
|   |   |   |   Febre = Sim
|   |   |   |   |   Cefaleia = Não : Sim (50/11) [19/3]
|   |   |   |   |   Cefaleia = Sim : Não (11/2) [3/0]
|   |   |   |   |   Cefaleia = - : Sim (0/0) [0/0]
|   |   |   |   Febre = - : Sim (0/0) [0/0]
|   |   |   ComorbidadeCardio = Sim : Não (54/10) [36/7]
|   |   |   ComorbidadeCardio = - : Não (0/0) [0/0]
|   |   DificuldadeRespiratoria = - : Não (31/0) [14/0]
FaixaEtaria = 40 a 49 anos
|   RacaCor = Branca : Não (1462/50) [736/19]
|   RacaCor = Preta : Não (321/5) [191/5]
|   RacaCor = Amarela : Não (277/9) [129/3]
|   RacaCor = Parda
|   |   Sexo = F : Não (852/13) [453/4]
|   |   Sexo = M
|   |   |   Tosse = Não : Não (303/2) [149/3]
|   |   |   Tosse = Sim
|   |   |   |   Cefaleia = Não
|   |   |   |   |   Febre = Não : Não (58/1) [28/0]
|   |   |   |   |   Febre = Sim
|   |   |   |   |   |   DorGarganta = Não
|   |   |   |   |   |   |   ComorbidadeCardio = Não
|   |   |   |   |   |   |   |   Coriza = Não
|   |   |   |   |   |   |   |   |   Diarreia = Não
|   |   |   |   |   |   |   |   |   |   ComorbidadeObesidade = Não : Sim (484/45) [240/22]
|   |   |   |   |   |   |   |   |   |   ComorbidadeObesidade = Sim : Não (2/0) [1/0]
|   |   |   |   |   |   |   |   |   |   ComorbidadeObesidade = - : Sim (0/0) [0/0]
|   |   |   |   |   |   |   |   |   Diarreia = Sim : Não (7/0) [7/0]
|   |   |   |   |   |   |   |   |   Diarreia = - : Sim (0/0) [0/0]
|   |   |   |   |   |   |   |   Coriza = Sim : Não (14/1) [13/0]
|   |   |   |   |   |   |   |   Coriza = - : Sim (0/0) [0/0]
|   |   |   |   |   |   |   ComorbidadeCardio = Sim : Não (18/0) [10/0]
|   |   |   |   |   |   |   ComorbidadeCardio = - : Sim (1/0) [0/0]
|   |   |   |   |   |   DorGarganta = Sim : Não (27/0) [21/0]
|   |   |   |   |   |   DorGarganta = - : Sim (0/0) [0/0]
|   |   |   |   |   Febre = - : Sim (0/0) [0/0]
|   |   |   |   Cefaleia = Sim : Não (272/19) [129/13]
|   |   |   |   Cefaleia = - : Sim (0/0) [0/0]
|   |   |   Tosse = - : Não (0/0) [2/0]
|   |   Sexo = I : Não (0/0) [0/0]
|   RacaCor = Indigena : Não (9/1) [4/0]
|   RacaCor = Ignorado : Não (1377/14) [660/7]
FaixaEtaria = 70 a 79 anos
|   Cefaleia = Não
|   |   RacaCor = Branca
|   |   |   Sexo = F
|   |   |   |   DificuldadeRespiratoria = Não : Não (76/5) [38/3]
|   |   |   |   DificuldadeRespiratoria = Sim
|   |   |   |   |   ComorbidadeCardio = Não : Sim (45/9) [21/1]
|   |   |   |   |   ComorbidadeCardio = Sim : Não (23/6) [14/3]
|   |   |   |   |   ComorbidadeCardio = - : Sim (0/0) [0/0]
|   |   |   |   DificuldadeRespiratoria = - : Não (0/0) [0/0]
|   |   |   Sexo = M
|   |   |   |   Coriza = Não
|   |   |   |   |   ComorbidadeDiabetes = Não
|   |   |   |   |   |   Diarreia = Não
|   |   |   |   |   |   |   Febre = Não
|   |   |   |   |   |   |   |   ComorbidadeCardio = Não : Sim (283/16) [155/6]
|   |   |   |   |   |   |   |   ComorbidadeCardio = Sim : Não (11/3) [9/4]
|   |   |   |   |   |   |   |   ComorbidadeCardio = - : Sim (0/0) [0/0]
|   |   |   |   |   |   |   Febre = Sim
|   |   |   |   |   |   |   |   DorGarganta = Não : Sim (2785/31) [1374/14]
|   |   |   |   |   |   |   |   DorGarganta = Sim : Não (6/3) [2/0]
|   |   |   |   |   |   |   |   DorGarganta = - : Sim (0/0) [0/0]
|   |   |   |   |   |   |   Febre = - : Sim (0/0) [0/0]
|   |   |   |   |   |   Diarreia = Sim : Não (10/2) [5/1]
|   |   |   |   |   |   Diarreia = - : Não (1/0) [0/0]
|   |   |   |   |   ComorbidadeDiabetes = Sim
|   |   |   |   |   |   ComorbidadeCardio = Não : Sim (46/7) [15/1]
|   |   |   |   |   |   ComorbidadeCardio = Sim : Não (17/3) [10/2]
|   |   |   |   |   |   ComorbidadeCardio = - : Sim (0/0) [0/0]
|   |   |   |   |   ComorbidadeDiabetes = - : Sim (0/0) [0/0]
|   |   |   |   Coriza = Sim : Não (29/5) [15/4]
|   |   |   |   Coriza = - : Sim (0/0) [0/0]
|   |   |   Sexo = I : Sim (0/0) [0/0]
|   |   RacaCor = Preta : Não (54/14) [21/4]
|   |   RacaCor = Amarela : Não (68/18) [24/5]
|   |   RacaCor = Parda
|   |   |   ComorbidadeDiabetes = Não
|   |   |   |   Sexo = F : Não (77/9) [36/5]
|   |   |   |   Sexo = M
|   |   |   |   |   Tosse = Não
|   |   |   |   |   |   DificuldadeRespiratoria = Não : Não (24/3) [3/0]
|   |   |   |   |   |   DificuldadeRespiratoria = Sim
|   |   |   |   |   |   |   ComorbidadeCardio = Não : Não (8/3) [1/1]
|   |   |   |   |   |   |   ComorbidadeCardio = Sim : Sim (2/0) [3/1]
|   |   |   |   |   |   |   ComorbidadeCardio = - : Sim (0/0) [0/0]
|   |   |   |   |   |   DificuldadeRespiratoria = - : Não (0/0) [0/0]
|   |   |   |   |   Tosse = Sim
|   |   |   |   |   |   Diarreia = Não
|   |   |   |   |   |   |   DorGarganta = Não
|   |   |   |   |   |   |   |   Febre = Não : Não (13/5) [4/1]
|   |   |   |   |   |   |   |   Febre = Sim
|   |   |   |   |   |   |   |   |   ComorbidadePulmao = Não
|   |   |   |   |   |   |   |   |   |   Coriza = Não : Sim (82/13) [40/6]
|   |   |   |   |   |   |   |   |   |   Coriza = Sim : Não (4/1) [2/0]
|   |   |   |   |   |   |   |   |   |   Coriza = - : Sim (0/0) [0/0]
|   |   |   |   |   |   |   |   |   ComorbidadePulmao = Sim : Não (2/0) [2/1]
|   |   |   |   |   |   |   |   |   ComorbidadePulmao = - : Sim (0/0) [0/0]
|   |   |   |   |   |   |   |   Febre = - : Sim (0/0) [0/0]
|   |   |   |   |   |   |   DorGarganta = Sim : Não (4/0) [5/0]
|   |   |   |   |   |   |   DorGarganta = - : Sim (0/0) [0/0]
|   |   |   |   |   |   Diarreia = Sim : Não (6/0) [3/0]
|   |   |   |   |   |   Diarreia = - : Sim (0/0) [0/0]
|   |   |   |   |   Tosse = - : Sim (0/0) [0/0]
|   |   |   |   Sexo = I : Não (0/0) [0/0]
|   |   |   ComorbidadeDiabetes = Sim
|   |   |   |   Febre = Não
|   |   |   |   |   DificuldadeRespiratoria = Não : Não (12/0) [8/0]
|   |   |   |   |   DificuldadeRespiratoria = Sim : Sim (13/6) [11/5]
|   |   |   |   |   DificuldadeRespiratoria = - : Não (0/0) [0/0]
|   |   |   |   Febre = Sim : Sim (1803/26) [926/14]
|   |   |   |   Febre = - : Sim (0/0) [0/0]
|   |   |   ComorbidadeDiabetes = - : Não (1/0) [1/1]
|   |   RacaCor = Indigena : Não (0/0) [1/0]
|   |   RacaCor = Ignorado
|   |   |   DificuldadeRespiratoria = Não
|   |   |   |   ComorbidadeDiabetes = Não : Não (96/8) [49/4]
|   |   |   |   ComorbidadeDiabetes = Sim
|   |   |   |   |   Febre = Não : Não (17/5) [6/0]
|   |   |   |   |   Febre = Sim
|   |   |   |   |   |   Sexo = F : Não (6/2) [4/1]
|   |   |   |   |   |   Sexo = M : Sim (29/10) [14/4]
|   |   |   |   |   |   Sexo = I : Sim (0/0) [0/0]
|   |   |   |   |   Febre = - : Não (0/0) [0/0]
|   |   |   |   ComorbidadeDiabetes = - : Sim (0/0) [1/0]
|   |   |   DificuldadeRespiratoria = Sim : Sim (100/31) [52/12]
|   |   |   DificuldadeRespiratoria = - : Não (0/0) [0/0]
|   Cefaleia = Sim : Não (369/30) [169/19]
|   Cefaleia = -
|   |   ComorbidadeDiabetes = Não : Sim (2/0) [1/0]
|   |   ComorbidadeDiabetes = Sim : Não (2/1) [0/0]
|   |   ComorbidadeDiabetes = - : Não (13/0) [4/0]
FaixaEtaria = 0 a 4 anos : Não (190/2) [74/1]
FaixaEtaria = 50 a 59 anos
|   RacaCor = Branca
|   |   Cefaleia = Não
|   |   |   Sexo = F : Não (245/10) [137/3]
|   |   |   Sexo = M
|   |   |   |   ComorbidadeCardio = Não : Não (202/31) [103/5]
|   |   |   |   ComorbidadeCardio = Sim
|   |   |   |   |   Coriza = Não
|   |   |   |   |   |   ComorbidadeDiabetes = Não
|   |   |   |   |   |   |   DificuldadeRespiratoria = Não
|   |   |   |   |   |   |   |   Febre = Não : Não (7/1) [3/0]
|   |   |   |   |   |   |   |   Febre = Sim
|   |   |   |   |   |   |   |   |   ComorbidadeObesidade = Não
|   |   |   |   |   |   |   |   |   |   Diarreia = Não : Sim (90/13) [55/11]
|   |   |   |   |   |   |   |   |   |   Diarreia = Sim : Não (3/0) [1/0]
|   |   |   |   |   |   |   |   |   |   Diarreia = - : Sim (0/0) [0/0]
|   |   |   |   |   |   |   |   |   ComorbidadeObesidade = Sim : Não (4/0) [1/0]
|   |   |   |   |   |   |   |   |   ComorbidadeObesidade = - : Sim (0/0) [0/0]
|   |   |   |   |   |   |   |   Febre = - : Sim (0/0) [0/0]
|   |   |   |   |   |   |   DificuldadeRespiratoria = Sim : Não (12/1) [8/3]
|   |   |   |   |   |   |   DificuldadeRespiratoria = - : Sim (0/0) [0/0]
|   |   |   |   |   |   ComorbidadeDiabetes = Sim : Não (13/1) [14/3]
|   |   |   |   |   |   ComorbidadeDiabetes = - : Sim (0/0) [0/0]
|   |   |   |   |   Coriza = Sim : Não (18/1) [9/0]
|   |   |   |   |   Coriza = - : Sim (0/0) [0/0]
|   |   |   |   ComorbidadeCardio = - : Não (0/0) [0/0]
|   |   |   Sexo = I : Não (0/0) [0/0]
|   |   Cefaleia = Sim : Não (576/6) [298/5]
|   |   Cefaleia = - : Não (2/0) [2/0]
|   RacaCor = Preta : Não (255/11) [102/2]
|   RacaCor = Amarela : Não (214/13) [103/1]
|   RacaCor = Parda
|   |   Cefaleia = Não
|   |   |   Febre = Não
|   |   |   |   DificuldadeRespiratoria = Não : Não (233/2) [97/1]
|   |   |   |   DificuldadeRespiratoria = Sim
|   |   |   |   |   ComorbidadeCardio = Não : Não (27/3) [14/1]
|   |   |   |   |   ComorbidadeCardio = Sim
|   |   |   |   |   |   Tosse = Não : Não (11/4) [3/1]
|   |   |   |   |   |   Tosse = Sim
|   |   |   |   |   |   |   Sexo = F : Não (4/1) [3/0]
|   |   |   |   |   |   |   Sexo = M : Sim (25/6) [8/2]
|   |   |   |   |   |   |   Sexo = I : Sim (0/0) [0/0]
|   |   |   |   |   |   Tosse = - : Sim (0/0) [0/0]
|   |   |   |   |   ComorbidadeCardio = - : Não (0/0) [0/0]
|   |   |   |   DificuldadeRespiratoria = - : Não (0/0) [0/0]
|   |   |   Febre = Sim
|   |   |   |   Coriza = Não
|   |   |   |   |   Tosse = Não : Não (55/2) [29/3]
|   |   |   |   |   Tosse = Sim
|   |   |   |   |   |   DorGarganta = Não
|   |   |   |   |   |   |   Sexo = F
|   |   |   |   |   |   |   |   ComorbidadeCardio = Não : Não (26/2) [15/0]
|   |   |   |   |   |   |   |   ComorbidadeCardio = Sim
|   |   |   |   |   |   |   |   |   Diarreia = Não
|   |   |   |   |   |   |   |   |   |   ComorbidadeDiabetes = Não : Sim (147/11) [69/10]
|   |   |   |   |   |   |   |   |   |   ComorbidadeDiabetes = Sim : Não (4/0) [2/0]
|   |   |   |   |   |   |   |   |   |   ComorbidadeDiabetes = - : Sim (0/0) [0/0]
|   |   |   |   |   |   |   |   |   Diarreia = Sim : Não (5/0) [1/0]
|   |   |   |   |   |   |   |   |   Diarreia = - : Sim (0/0) [0/0]
|   |   |   |   |   |   |   |   ComorbidadeCardio = - : Sim (0/0) [0/0]
|   |   |   |   |   |   |   Sexo = M
|   |   |   |   |   |   |   |   Diarreia = Não
|   |   |   |   |   |   |   |   |   ComorbidadeObesidade = Não : Sim (3635/63) [1875/29]
|   |   |   |   |   |   |   |   |   ComorbidadeObesidade = Sim : Não (5/1) [1/0]
|   |   |   |   |   |   |   |   |   ComorbidadeObesidade = - : Não (3/0) [0/0]
|   |   |   |   |   |   |   |   Diarreia = Sim : Não (9/1) [4/2]
|   |   |   |   |   |   |   |   Diarreia = - : Sim (0/0) [0/0]
|   |   |   |   |   |   |   Sexo = I : Sim (0/0) [0/0]
|   |   |   |   |   |   DorGarganta = Sim : Não (30/0) [13/1]
|   |   |   |   |   |   DorGarganta = - : Sim (0/0) [0/0]
|   |   |   |   |   Tosse = - : Sim (0/0) [0/0]
|   |   |   |   Coriza = Sim : Não (79/3) [40/0]
|   |   |   |   Coriza = - : Sim (0/0) [0/0]
|   |   |   Febre = - : Sim (0/0) [0/0]
|   |   Cefaleia = Sim
|   |   |   DificuldadeRespiratoria = Não : Não (403/3) [202/2]
|   |   |   DificuldadeRespiratoria = Sim
|   |   |   |   Coriza = Não
|   |   |   |   |   DorGarganta = Não
|   |   |   |   |   |   ComorbidadeCardio = Não
|   |   |   |   |   |   |   Sexo = F : Não (12/0) [5/0]
|   |   |   |   |   |   |   Sexo = M
|   |   |   |   |   |   |   |   Tosse = Não : Não (3/0) [2/0]
|   |   |   |   |   |   |   |   Tosse = Sim : Sim (27/10) [15/4]
|   |   |   |   |   |   |   |   Tosse = - : Sim (0/0) [0/0]
|   |   |   |   |   |   |   Sexo = I : Não (0/0) [0/0]
|   |   |   |   |   |   ComorbidadeCardio = Sim
|   |   |   |   |   |   |   ComorbidadeDiabetes = Não : Sim (125/13) [65/6]
|   |   |   |   |   |   |   ComorbidadeDiabetes = Sim : Não (5/0) [4/0]
|   |   |   |   |   |   |   ComorbidadeDiabetes = - : Sim (0/0) [0/0]
|   |   |   |   |   |   ComorbidadeCardio = - : Sim (0/0) [0/0]
|   |   |   |   |   DorGarganta = Sim : Não (28/1) [9/0]
|   |   |   |   |   DorGarganta = - : Sim (0/0) [0/0]
|   |   |   |   Coriza = Sim : Não (71/1) [46/2]
|   |   |   |   Coriza = - : Não (0/0) [0/0]
|   |   |   DificuldadeRespiratoria = - : Não (0/0) [0/0]
|   |   Cefaleia = - : Não (5/2) [4/0]
|   RacaCor = Indigena : Não (5/0) [0/0]
|   RacaCor = Ignorado : Não (931/38) [445/21]
FaixaEtaria = 80 a 89 anos
|   RacaCor = Branca
|   |   Cefaleia = Não
|   |   |   DorGarganta = Não
|   |   |   |   Tosse = Não
|   |   |   |   |   DificuldadeRespiratoria = Não
|   |   |   |   |   |   ComorbidadeCardio = Não : Sim (244/15) [126/10]
|   |   |   |   |   |   ComorbidadeCardio = Sim
|   |   |   |   |   |   |   Febre = Não
|   |   |   |   |   |   |   |   ComorbidadeDiabetes = Não
|   |   |   |   |   |   |   |   |   Sexo = F : Não (9/2) [1/0]
|   |   |   |   |   |   |   |   |   Sexo = M : Sim (20/3) [9/1]
|   |   |   |   |   |   |   |   |   Sexo = I : Sim (0/0) [0/0]
|   |   |   |   |   |   |   |   ComorbidadeDiabetes = Sim : Sim (23/3) [9/3]
|   |   |   |   |   |   |   |   ComorbidadeDiabetes = - : Sim (0/0) [0/0]
|   |   |   |   |   |   |   Febre = Sim : Sim (39/2) [17/3]
|   |   |   |   |   |   |   Febre = - : Sim (0/0) [0/0]
|   |   |   |   |   |   ComorbidadeCardio = - : Sim (0/0) [0/0]
|   |   |   |   |   DificuldadeRespiratoria = Sim : Não (15/7) [14/6]
|   |   |   |   |   DificuldadeRespiratoria = - : Sim (0/0) [0/0]
|   |   |   |   Tosse = Sim
|   |   |   |   |   Coriza = Não
|   |   |   |   |   |   ComorbidadePulmao = Não : Sim (3342/38) [1703/23]
|   |   |   |   |   |   ComorbidadePulmao = Sim
|   |   |   |   |   |   |   ComorbidadeCardio = Não : Não (4/1) [1/0]
|   |   |   |   |   |   |   ComorbidadeCardio = Sim : Sim (6/2) [1/0]
|   |   |   |   |   |   |   ComorbidadeCardio = - : Não (0/0) [0/0]
|   |   |   |   |   |   ComorbidadePulmao = - : Sim (0/0) [0/0]
|   |   |   |   |   Coriza = Sim : Não (12/5) [4/1]
|   |   |   |   |   Coriza = - : Sim (0/0) [0/0]
|   |   |   |   Tosse = - : Sim (0/0) [0/0]
|   |   |   DorGarganta = Sim : Não (17/4) [8/1]
|   |   |   DorGarganta = - : Sim (0/0) [0/0]
|   |   Cefaleia = Sim : Não (55/13) [23/1]
|   |   Cefaleia = - : Sim (1/0) [2/0]
|   RacaCor = Preta : Não (42/18) [15/4]
|   RacaCor = Amarela
|   |   Cefaleia = Não
|   |   |   DificuldadeRespiratoria = Não : Não (16/3) [6/4]
|   |   |   DificuldadeRespiratoria = Sim : Sim (24/8) [5/1]
|   |   |   DificuldadeRespiratoria = - : Sim (0/0) [0/0]
|   |   Cefaleia = Sim : Não (11/0) [3/0]
|   |   Cefaleia = - : Não (0/0) [0/0]
|   RacaCor = Parda
|   |   Coriza = Não
|   |   |   Cefaleia = Não
|   |   |   |   Tosse = Não
|   |   |   |   |   ComorbidadeCardio = Não : Sim (90/13) [59/3]
|   |   |   |   |   ComorbidadeCardio = Sim
|   |   |   |   |   |   ComorbidadeRenal = Não
|   |   |   |   |   |   |   Febre = Não : Sim (14/3) [7/5]
|   |   |   |   |   |   |   Febre = Sim
|   |   |   |   |   |   |   |   ComorbidadeDiabetes = Não : Sim (5/2) [2/0]
|   |   |   |   |   |   |   |   ComorbidadeDiabetes = Sim : Não (3/0) [3/1]
|   |   |   |   |   |   |   |   ComorbidadeDiabetes = - : Não (0/0) [0/0]
|   |   |   |   |   |   |   Febre = - : Sim (0/0) [0/0]
|   |   |   |   |   |   ComorbidadeRenal = Sim : Não (2/0) [1/0]
|   |   |   |   |   |   ComorbidadeRenal = - : Sim (0/0) [0/0]
|   |   |   |   |   ComorbidadeCardio = - : Sim (0/0) [0/0]
|   |   |   |   Tosse = Sim
|   |   |   |   |   Diarreia = Não
|   |   |   |   |   |   DificuldadeRespiratoria = Não
|   |   |   |   |   |   |   Febre = Não : Não (8/1) [6/1]
|   |   |   |   |   |   |   Febre = Sim : Sim (125/7) [37/6]
|   |   |   |   |   |   |   Febre = - : Sim (0/0) [0/0]
|   |   |   |   |   |   DificuldadeRespiratoria = Sim : Sim (743/13) [338/5]
|   |   |   |   |   |   DificuldadeRespiratoria = - : Sim (0/0) [0/0]
|   |   |   |   |   Diarreia = Sim : Não (5/0) [2/0]
|   |   |   |   |   Diarreia = - : Sim (0/0) [0/0]
|   |   |   |   Tosse = - : Sim (0/0) [0/0]
|   |   |   Cefaleia = Sim : Não (22/5) [12/3]
|   |   |   Cefaleia = - : Sim (0/0) [0/0]
|   |   Coriza = Sim
|   |   |   DorGarganta = Não : Não (25/1) [10/3]
|   |   |   DorGarganta = Sim
|   |   |   |   DificuldadeRespiratoria = Não : Não (3/0) [1/0]
|   |   |   |   DificuldadeRespiratoria = Sim : Sim (3/1) [1/0]
|   |   |   |   DificuldadeRespiratoria = - : Não (0/0) [0/0]
|   |   |   DorGarganta = - : Não (0/0) [0/0]
|   |   Coriza = - : Sim (0/0) [0/0]
|   RacaCor = Indigena : Sim (0/0) [0/0]
|   RacaCor = Ignorado : Não (121/32) [64/13]
FaixaEtaria = 05 a 9 anos : Não (133/0) [68/1]
FaixaEtaria = 90 anos ou mais
|   RacaCor = Branca
|   |   Coriza = Não
|   |   |   Diarreia = Não : Sim (1225/18) [610/10]
|   |   |   Diarreia = Sim : Não (5/1) [3/0]
|   |   |   Diarreia = - : Sim (0/0) [0/0]
|   |   Coriza = Sim : Não (14/4) [4/2]
|   |   Coriza = - : Sim (0/0) [0/0]
|   RacaCor = Preta : Não (6/2) [5/1]
|   RacaCor = Amarela : Sim (9/4) [6/3]
|   RacaCor = Parda
|   |   DificuldadeRespiratoria = Não : Não (8/1) [6/4]
|   |   DificuldadeRespiratoria = Sim
|   |   |   ComorbidadeCardio = Não : Não (4/1) [1/1]
|   |   |   ComorbidadeCardio = Sim
|   |   |   |   Tosse = Não : Não (2/1) [2/0]
|   |   |   |   Tosse = Sim : Sim (10/1) [1/0]
|   |   |   |   Tosse = - : Sim (0/0) [0/0]
|   |   |   ComorbidadeCardio = - : Sim (0/0) [0/0]
|   |   DificuldadeRespiratoria = - : Sim (0/0) [0/0]
|   RacaCor = Indigena : Sim (0/0) [0/0]
|   RacaCor = Ignorado : Não (37/10) [16/8]
FaixaEtaria = 30 a 39 anos : Não (5661/28) [2852/15]
FaixaEtaria = 10 a 19 anos : Não (538/0) [288/1]
FaixaEtaria = 20 a 29 anos : Não (2898/11) [1489/2]

Size of the tree : 459

Time taken to build model: 0.41 seconds

=== Stratified cross-validation ===
=== Summary ===

Correctly Classified Instances       61811               96.6854 %
Incorrectly Classified Instances      2119                3.3146 %
Kappa statistic                          0.9337
Mean absolute error                      0.0544
Root mean squared error                  0.1689
Relative absolute error                 10.8862 %
Root relative squared error             33.7716 %
Total Number of Instances            63930     

=== Detailed Accuracy By Class ===

                 TP Rate  FP Rate  Precision  Recall   F-Measure  MCC      ROC Area  PRC Area  Class
                 0,965    0,031    0,969      0,965    0,967      0,934    0,987     0,983     Não
                 0,969    0,035    0,965      0,969    0,967      0,934    0,987     0,984     Sim
Weighted Avg.    0,967    0,033    0,967      0,967    0,967      0,934    0,987     0,983     

=== Confusion Matrix ===

     a     b   <-- classified as
 30847  1118 |     a = Não
  1001 30964 |     b = Sim

